network unknown {
}
variable BearingWearHigh {
    type discrete [ 2 ] { 0, 1 };
}
variable CloggedFilter {
    type discrete [ 2 ] { 0, 1 };
}
variable FanFault {
    type discrete [ 2 ] { 0, 1 };
}
variable LowCoolingEfficiency {
    type discrete [ 2 ] { 0, 1 };
}
variable coolant_flow {
    type discrete [ 3 ] { high, low, normal };
}
variable spindle_overheat {
    type discrete [ 2 ] { 0, 1 };
}
variable spindle_temp {
    type discrete [ 3 ] { high, low, normal };
}
variable vibration_rms {
    type discrete [ 3 ] { high, low, normal };
}
probability ( BearingWearHigh ) {
    table 0.15187083851170416, 0.8481291614882959 ;
}
probability ( CloggedFilter ) {
    table 0.15232633691259356, 0.8476736630874064 ;
}
probability ( FanFault ) {
    table 0.14229792777879893, 0.857702072221201 ;
}
probability ( LowCoolingEfficiency ) {
    table 0.11602182478451406, 0.883978175215486 ;
}
probability ( coolant_flow | CloggedFilter ) {
    ( 0 ) 0.17282614632666887, 0.4171829669889836, 0.4099908866843476;
    ( 1 ) 0.26139331081065487, 0.2233423791779605, 0.5152643100113848;

}
probability ( spindle_overheat | coolant_flow, spindle_temp, vibration_rms ) {
    ( high, high, high ) 0.7703002554581339, 0.22969974454186626;
    ( high, high, low ) 0.2836916342305706, 0.7163083657694294;
    ( high, high, normal ) 0.9814590571365124, 0.018540942863487585;
    ( high, low, high ) 0.1758903296040711, 0.8241096703959289;
    ( high, low, low ) 0.7815925424773307, 0.21840745752266927;
    ( high, low, normal ) 0.720469967335219, 0.279530032664781;
    ( high, normal, high ) 0.2975666980404557, 0.7024333019595443;
    ( high, normal, low ) 0.8440519894724753, 0.1559480105275248;
    ( high, normal, normal ) 0.528067869292059, 0.4719321307079411;
    ( low, high, high ) 0.8718514346723888, 0.12814856532761118;
    ( low, high, low ) 0.41457485572869046, 0.5854251442713096;
    ( low, high, normal ) 0.6115607320091019, 0.388439267990898;
    ( low, low, high ) 0.24878288611141536, 0.7512171138885846;
    ( low, low, low ) 0.38184766638665674, 0.6181523336133433;
    ( low, low, normal ) 0.21408718412834482, 0.7859128158716552;
    ( low, normal, high ) 0.421070558703574, 0.578929441296426;
    ( low, normal, low ) 0.5827138917181144, 0.41728610828188556;
    ( low, normal, normal ) 0.2908986068607618, 0.7091013931392383;
    ( normal, high, high ) 0.6313742081201684, 0.36862579187983163;
    ( normal, high, low ) 0.4317728300739619, 0.5682271699260383;
    ( normal, high, normal ) 0.1836413038893096, 0.8163586961106905;
    ( normal, low, high ) 0.2749258468270385, 0.7250741531729615;
    ( normal, low, low ) 0.8676438776801058, 0.13235612231989413;
    ( normal, low, normal ) 0.32059042048903547, 0.6794095795109646;
    ( normal, normal, high ) 0.4440457304199059, 0.5559542695800941;
    ( normal, normal, low ) 0.5412180704184901, 0.45878192958150993;
    ( normal, normal, normal ) 0.18978657106341343, 0.8102134289365867;

}
probability ( spindle_temp | FanFault, LowCoolingEfficiency ) {
    ( 0, 0 ) 0.02381058265297471, 0.3088637933618229, 0.6673256239852023;
    ( 0, 1 ) 0.17400189815226097, 0.08779977029026667, 0.7381983315574724;
    ( 1, 0 ) 0.22562138955078773, 0.20375983397534977, 0.5706187764738624;
    ( 1, 1 ) 0.26869813717022295, 0.28349409829591593, 0.4478077645338612;

}
probability ( vibration_rms | BearingWearHigh ) {
    ( 0 ) 0.004462933945379277, 0.31297894109224306, 0.6825581249623777;
    ( 1 ) 0.29042768035977873, 0.24122450759864128, 0.46834781204158;

}
